T,X,Y,Z
29.617923,-296,160,90
29.620118,-310,186,88
29.622042,-308,226,102
29.623970,-306,236,128
29.625954,-302,264,142
29.628041,-288,280,156
29.629947,-298,308,166
29.631791,-258,340,186
29.633631,-288,348,148
29.635499,-294,388,172
29.637347,-274,412,164
29.639219,-282,434,164
29.641108,-274,448,144
29.642997,-286,470,120
29.644931,-304,472,90
29.646767,-328,486,68
29.648577,-352,488,26
29.650382,-348,494,48
29.652188,-340,498,48
29.654046,-328,486,46
29.655945,-314,490,68
29.657818,-278,508,82
29.659687,-254,502,94
29.661509,-236,488,80
29.663417,-214,480,64
29.665368,-192,440,44
29.667403,-188,418,28
29.669516,-192,366,0
29.671585,-208,344,-46
29.673638,-236,324,-78
29.675706,-272,274,-100
29.677708,-282,256,-82
29.679684,-304,226,-110
29.681640,-326,214,-84
29.683586,-340,192,-74
29.685521,-358,162,-74
29.687449,-368,150,-84
29.689366,-356,114,-86
29.691254,-324,80,-82
29.693168,-272,46,-82
29.695186,-226,0,-108
29.697175,-168,-52,-136
29.699143,-118,-78,-186
29.701068,-36,-112,-208
29.702962,38,-170,-226
29.704973,104,-184,-232
29.706872,148,-220,-262
29.708790,216,-262,-276
29.710763,266,-300,-288
29.712744,328,-342,-300
29.715665,362,-370,-296
29.717593,396,-400,-264
29.719473,424,-416,-246
29.721292,452,-446,-238
29.723102,472,-456,-246
29.724989,458,-460,-246
29.726816,428,-480,-266
29.728654,432,-484,-236
29.730593,398,-484,-208
29.732583,372,-490,-188
29.734547,356,-512,-146
29.736525,322,-512,-108
29.738505,274,-512,-102
29.740486,206,-512,-62
29.742503,102,-460,-122
29.744466,-30,-408,-156
29.746342,-132,-360,-168
29.748188,-232,-342,-152
29.750119,-324,-284,-146
29.752130,-400,-260,-62
29.754110,-496,-150,18
29.756072,-512,-120,66
29.758017,-512,-120,136
29.759991,-512,-28,178
29.761954,-512,52,192
29.763970,-512,40,244
29.765948,-512,92,286
29.767936,-512,132,304
29.769936,-512,204,274
29.771918,-512,198,262
29.773872,-512,232,226
29.775899,-512,330,246
29.777891,-512,322,278
29.779879,-512,360,324
29.781816,-490,408,356
29.783758,-450,460,392
29.785730,-396,511,440
29.787699,-342,511,464
29.789667,-298,511,511
29.791615,-266,511,511
29.793579,-256,511,511
29.795600,-252,511,472
29.797562,-262,511,436
29.799485,-280,511,394
29.801404,-272,511,378
29.803318,-284,511,352
29.805301,-268,511,336
29.807216,-248,511,322
29.809128,-236,511,306
29.811038,-262,511,278
29.812979,-270,511,234
29.815072,-244,511,234
29.817051,-216,511,222
29.819010,-210,511,200
29.820963,-220,511,142
29.822862,-222,511,114
29.824767,-244,511,64
29.826641,-266,511,24
29.828538,-314,460,-36
29.830463,-352,428,-70
29.832392,-398,336,-76
29.834361,-420,298,-68
29.836347,-458,250,-48
29.838303,-482,210,-20
29.840217,-512,166,-20
29.842562,-512,126,-24
29.844639,-504,72,-42
29.846665,-464,10,-54
29.848584,-388,-20,-80
29.850472,-314,-114,-144
29.852399,-244,-162,-212
29.854370,-162,-256,-272
29.856299,-70,-292,-344
29.858243,28,-358,-350
29.860217,134,-414,-394
29.862191,252,-462,-416
29.864083,356,-512,-412
29.865944,432,-512,-372
29.867777,466,-512,-336
29.869652,496,-512,-354
29.871559,510,-512,-348
29.873519,472,-512,-354
29.875484,484,-512,-332
29.877425,436,-512,-326
29.879361,402,-512,-288
29.881309,388,-512,-170
29.883255,362,-512,-34
29.885264,314,-488,28
29.887144,226,-424,4
29.889033,126,-398,0
29.890957,38,-376,-44
29.892870,-32,-346,-66
29.894773,-122,-334,-88
29.896766,-206,-262,-132
29.898695,-304,-264,-150
29.900600,-392,-214,-154
29.902480,-462,-192,-106
29.904324,-512,-122,-82
29.906158,-512,24,0
29.908016,-512,108,112
29.909941,-512,172,236
29.911908,-512,232,350
29.913854,-512,272,444
29.915838,-512,322,460
29.917809,-464,354,492
29.919789,-424,362,504
29.921760,-396,390,472
29.923720,-406,386,468
29.925723,-416,374,414
29.927724,-390,408,392
29.929697,-364,446,420
29.931661,-338,406,404
29.933629,-320,436,398
29.935568,-310,468,390
29.937511,-302,482,386
29.939512,-306,511,346
29.941501,-316,506,302
29.943536,-334,511,270
29.945498,-404,511,178
29.947426,-512,511,68
29.949366,-512,511,-22
29.951320,-512,511,-58
29.953250,-512,511,-68
29.955261,-512,511,-60
29.957197,-512,511,-40
29.959166,-512,511,-34
29.961116,-464,511,-26
29.963072,-402,511,-8
29.965121,-368,511,-32
29.967077,-370,511,-66
29.969025,-384,511,-114
29.971004,-416,511,-132
29.972990,-462,460,-194
29.974968,-496,352,-238
29.976955,-512,308,-290
29.978943,-512,244,-320
29.980980,-512,186,-314
29.982971,-496,112,-296
29.985035,-470,84,-262
29.987023,-442,14,-250
29.988976,-402,-58,-244
29.990913,-330,-162,-202
29.992874,-316,-238,-258
29.994866,-230,-356,-328
29.996840,-114,-462,-388
29.998738,0,-512,-400
30.000598,118,-512,-408
30.002479,260,-512,-388
30.004396,330,-512,-360
30.006356,432,-512,-368
30.008304,511,-512,-330
30.010264,511,-512,-254
30.012230,511,-512,-150
30.014177,511,-512,-32
30.016152,511,-512,48
30.018121,511,-512,84
30.020077,511,-512,80
30.022025,511,-512,22
30.023972,511,-512,-36
30.025937,511,-512,-76
30.027901,432,-512,-138
30.029867,292,-348,-130
30.031843,142,-162,-36
30.033820,24,-104,118
30.035779,-56,-252,216
30.037771,-54,-466,214
30.039735,-46,-512,40
30.041700,-194,-512,-242
30.043677,-386,-512,-484
30.045675,-426,-430,-506
30.047688,-512,-290,-414
30.049675,-512,-76,-224
30.051677,-512,34,20
30.053674,-500,204,154
30.055687,-448,254,296
30.057644,-420,304,370
30.059599,-436,342,396
30.061550,-504,382,380
30.063501,-512,392,336
30.065529,-512,400,310
30.067551,-512,422,258
30.069491,-512,490,336
30.071476,-512,476,412
30.073562,-512,511,511
30.075537,-478,511,511
30.077545,-432,511,511
30.079549,-348,511,511
30.081550,-276,511,511
30.083526,-218,511,511
30.085486,-194,511,511
30.087436,-168,511,511
30.089381,-158,511,511
30.091335,-264,511,476
30.093283,-478,511,278
30.095373,-512,511,186
30.097345,-512,511,150
30.099325,-512,511,122
30.101282,-512,511,156
30.103236,-444,511,134
30.105288,-332,511,116
30.107234,-272,511,80
30.109190,-208,511,74
30.111156,-214,484,4
30.113117,-264,434,-102
30.115174,-326,370,-224
30.117149,-396,282,-300
30.119112,-488,248,-394
30.121057,-512,162,-416
30.123009,-512,92,-432
30.125081,-512,76,-436
30.127034,-512,72,-384
30.128878,-512,22,-346
30.130722,-512,4,-294
30.132666,-490,-50,-318
30.134734,-400,-146,-370
30.136867,-300,-234,-444
30.138996,-138,-300,-512
30.140999,-6,-344,-510
30.143072,134,-438,-512
30.145307,238,-476,-474
30.147338,320,-512,-456
30.149343,366,-512,-418
30.151251,406,-512,-370
30.153194,454,-512,-310
30.155250,480,-512,-258
30.157231,511,-512,-216
30.159204,511,-512,-200
30.161182,511,-512,-192
30.163156,511,-512,-200
30.165227,511,-512,-194
30.167205,476,-512,-206
30.169159,380,-512,-200
30.171130,254,-512,-184
30.173149,120,-454,-160
30.175227,0,-242,-134
30.177246,-86,48,-124
30.179211,-184,310,116
30.181206,-200,56,502
30.183221,-192,-360,511
30.185300,-314,-512,326
30.187260,-476,-512,-132
30.189204,-512,-408,-348
30.191119,-512,-342,-318
30.193039,-512,-224,-208
30.195068,-512,-18,-72
30.197059,-508,134,148
30.199063,-376,236,358
30.201073,-246,388,494
30.203052,-204,438,510
30.205157,-220,486,496
30.207164,-316,490,456
30.209196,-378,511,448
30.211163,-420,511,480
30.213119,-448,511,458
30.215122,-470,511,511
30.217044,-436,511,511
30.218964,-386,511,511
30.220888,-348,511,511
30.222846,-296,511,511
30.224759,-212,511,511
30.226700,-142,511,511
30.228638,-84,511,511
30.230559,-138,511,511
30.232517,-364,511,394
30.234483,-512,511,290
30.236477,-512,511,262
30.238400,-512,511,256
30.240343,-512,511,252
30.242381,-512,511,206
30.244355,-512,511,130
30.246379,-512,511,48
30.248393,-512,511,-12
30.250374,-468,511,-96
30.252337,-382,502,-138
30.254295,-364,500,-158
30.256280,-370,444,-170
30.258204,-382,396,-216
30.260091,-368,388,-238
30.261958,-352,374,-238
30.263827,-358,346,-220
30.265710,-366,306,-172
30.267671,-336,310,-108
30.269672,-290,266,-32
30.271661,-262,206,-44
30.273627,-270,108,-132
30.275583,-250,44,-218
30.277482,-200,-40,-332
30.279379,-172,-128,-404
30.281250,-172,-206,-474
30.283104,-166,-302,-502
30.285040,-126,-388,-458
30.286906,-88,-436,-438
30.288750,-50,-474,-408
30.290626,-8,-512,-374
30.292461,12,-512,-290
30.294284,76,-512,-212
30.296108,112,-512,-148
30.297930,168,-512,-120
30.299750,240,-512,-98
30.301580,312,-512,-52
30.303474,388,-512,-66
30.305320,418,-512,-94
30.307176,398,-512,-94
30.308999,386,-512,-120
30.310816,378,-490,-138
30.312643,344,-458,-138
30.314463,304,-408,-114
30.316293,218,-70,-140
30.318128,96,218,-48
30.319951,-58,184,212
30.321779,-86,-36,511
30.323643,60,-288,511
30.325512,32,-398,511
30.327383,-138,-376,96
30.329251,-326,-304,-180
30.331157,-220,-272,-144
30.333067,-230,-64,-32
30.335028,-152,120,128
30.336912,-90,242,244
30.338821,-36,294,354
30.340752,-40,316,374
30.342700,-132,288,294
30.344660,-264,258,212
30.346552,-384,246,134
30.348407,-432,232,100
30.350274,-468,244,82
30.352128,-444,252,58
30.353955,-398,252,36
30.355767,-354,250,60
30.357562,-318,250,10
30.359360,-320,264,54
30.361158,-334,270,88
30.362953,-368,282,148
30.364794,-404,300,216
30.366705,-436,306,256
30.368533,-436,304,258
30.370347,-466,302,256
30.372156,-488,304,226
30.373990,-510,304,192
30.375881,-512,320,176
30.377731,-512,348,166
30.379543,-512,368,152
30.381358,-512,396,128
30.383167,-512,412,102
30.385048,-512,422,52
30.386872,-512,426,-14
30.388703,-512,430,-70
30.390535,-512,428,-128
30.392419,-512,446,-150
30.394414,-512,462,-152
30.396416,-512,470,-134
30.398389,-512,474,-118
30.400361,-512,490,-78
30.402298,-512,462,-30
30.404245,-512,456,4
30.406176,-512,454,44
30.408060,-482,432,16
30.409946,-476,438,34
30.411890,-482,390,60
30.413853,-454,376,72
30.416020,-432,366,108
30.418245,-370,348,128
30.420275,-366,336,138
30.422258,-346,320,174
30.424236,-336,288,176
30.426262,-344,246,204
30.428240,-324,202,248
30.430105,-324,136,142
30.431995,-248,28,128
30.433833,-188,-84,8
30.435677,-122,-194,-154
30.437549,-50,-308,-248
30.449048,98,-482,-168
30.451121,166,-512,-142
30.453099,228,-512,-136
30.455162,322,-512,-156
30.457126,448,-512,-198
30.459095,511,-512,-204
30.461036,511,-512,-192
30.462914,511,-512,-184
30.464776,511,-512,-200
30.466694,511,-512,-198
30.468648,511,-512,-208
30.470618,480,-512,-188
30.472628,382,-450,-158
30.474643,286,-388,-150
30.476615,174,-320,-122
30.478574,112,-254,-128
30.480510,8,-174,-112
30.482392,-50,-142,-104
30.484358,-106,-128,-72
30.486363,-174,-156,-12
30.488206,-164,-194,-12
30.490002,-158,-204,-8
30.491796,-170,-162,-52
30.493595,-192,-120,-64
30.495390,-248,-30,-72
30.497182,-306,50,-58
30.498975,-348,92,-14
30.500768,-400,148,-10
30.502561,-450,148,4
30.504357,-470,150,-4
30.506156,-462,130,4
30.507948,-456,124,24
30.509739,-468,80,10
30.511530,-462,68,6
30.513319,-460,50,26
30.515174,-468,46,14
30.516969,-508,24,58
30.518763,-510,32,48
30.520554,-512,38,52
30.522347,-512,34,64
30.524137,-512,28,100
30.525944,-512,136,110
30.527739,-512,130,120
30.529528,-512,182,180
30.531320,-512,220,170
30.533110,-512,192,134
30.534953,-512,258,118
30.536749,-512,272,74
30.538543,-512,342,56
30.540335,-512,400,50
30.542126,-512,498,94
30.543921,-512,511,124
30.545711,-512,511,178
30.547504,-512,511,244
30.549295,-512,511,314
30.551086,-512,511,364
30.552876,-480,511,388
30.554672,-408,511,398
30.556465,-352,511,356
30.558254,-366,511,306
30.560048,-486,511,212
30.561841,-512,511,128
30.563634,-512,511,86
30.565429,-512,511,70
30.567236,-512,511,104
30.569034,-512,511,146
30.570826,-496,511,176
30.572620,-428,511,196
30.574416,-370,511,214
30.576205,-330,511,220
30.577998,-270,511,218
30.579791,-198,511,206
30.581583,-164,511,202
30.583428,-94,468,182
30.585218,-30,412,156
30.587004,-70,280,90
30.588790,-114,198,34
30.590574,-170,4,-108
30.592361,-244,-190,-252
30.594156,-304,-280,-332
30.595952,-312,-400,-420
30.597745,-290,-512,-506
30.599537,-252,-512,-512
30.601329,-190,-512,-512
30.603121,-110,-512,-512
30.604968,0,-512,-448
30.606772,72,-512,-394
30.608565,188,-512,-334
30.610356,330,-512,-238
30.612148,444,-512,-158
30.613941,511,-512,-72
30.615733,511,-512,-82
30.617525,511,-512,-94
30.619318,511,-512,-78
30.621110,511,-512,-90
30.622902,511,-512,-138
30.624695,511,-512,-192
30.626488,511,-512,-202
30.628276,492,-496,-260
30.630067,308,-32,-386
30.631859,-128,186,-430
30.633653,-436,14,-20
30.635445,-172,-246,511
30.637238,128,-498,511
30.639032,52,-512,416
30.640831,-204,-386,-138
30.642622,-240,-324,-310
30.644416,-288,-186,-260
30.646212,-434,-32,-206
30.648012,-488,178,-128
30.649804,-512,316,8
30.651597,-512,394,122
30.653440,-512,448,256
30.655237,-470,410,328
30.657033,-460,414,358
30.658826,-494,336,376
30.660618,-512,312,384
30.662408,-512,280,326
30.664204,-512,254,256
30.665993,-512,252,206
30.667787,-512,218,142
30.669578,-466,220,158
30.671367,-394,226,160
30.673159,-352,258,206
30.675004,-354,258,240
30.676803,-316,280,264
30.678598,-308,274,272
30.680389,-294,290,256
30.682179,-312,296,218
30.683975,-346,302,154
30.685769,-400,320,82
30.687572,-488,348,2
30.689365,-512,384,-40
30.691157,-512,450,-64
30.692949,-512,511,-58
30.694744,-512,511,-6
30.696534,-512,511,42
30.698324,-512,511,116
30.700117,-512,511,184
30.701908,-512,511,194
30.703699,-512,511,176
30.705490,-512,511,138
30.707281,-512,511,106
30.709072,-512,511,48
30.710864,-512,511,0
30.712653,-512,511,-28
30.714447,-512,511,-34
30.716238,-432,511,-20
30.718030,-400,511,-8
30.719823,-388,500,-16
30.721612,-374,448,-6
30.723456,-380,440,6
30.725256,-354,388,30
30.727054,-348,340,64
30.728847,-366,292,76
30.730639,-388,226,52
30.732431,-392,164,38
30.734226,-418,122,-18
30.736017,-492,56,-106
30.737808,-512,-36,-146
30.739601,-512,-124,-200
30.741393,-512,-204,-238
30.743182,-478,-264,-278
30.745031,-368,-328,-278
30.746824,-262,-392,-288
30.748616,-70,-482,-302
30.750407,94,-512,-330
30.752199,230,-512,-328
30.753993,338,-512,-288
30.755787,440,-512,-254
30.757577,511,-512,-230
30.759369,511,-512,-206
30.761160,511,-512,-158
30.762951,511,-512,-132
30.764744,511,-512,-126
30.766538,511,-512,-80
30.768332,511,-512,-64
30.770133,511,-512,-14
30.771926,511,-512,24
30.773720,511,-512,18
30.775513,511,-512,-26
30.777307,511,-512,-56
30.779098,511,-512,-76
30.780891,511,-512,-74
30.782683,511,-512,-70
30.784476,232,126,-348
30.786265,-440,212,-418
30.788054,-512,-32,326
30.789847,6,-512,511
30.791633,450,-512,511
30.793472,446,-512,2
30.795266,158,-512,-492
30.797058,284,-512,-512
30.798849,22,-466,-318
30.800640,-340,-314,-188
30.802432,-512,-26,-110
30.804227,-512,238,-30
30.806024,-512,236,-16
30.807818,-512,274,50
30.809610,-512,320,128
30.811404,-512,308,6
30.813194,-512,298,-206
30.815040,-512,296,-338
30.816837,-512,234,-372
30.818628,-512,236,-364
30.820421,-512,264,-292
30.822215,-512,248,-110
30.824010,-512,294,18
30.825803,-512,270,204
30.827594,-500,300,332
30.829385,-440,316,460
30.831179,-370,360,511
30.832972,-310,358,511
30.834766,-296,342,511
30.836555,-318,404,511
30.838346,-286,418,511
30.840134,-276,478,511
30.841921,-256,460,511
30.843735,-290,508,511
30.845580,-316,511,511
30.847391,-334,511,511
30.849185,-338,511,448
30.850977,-344,511,378
30.852769,-378,511,312
30.854567,-428,511,242
30.856362,-512,511,172
30.858154,-512,511,88
30.859945,-512,511,50
30.861738,-512,511,8
30.863533,-512,511,-22
30.865326,-512,511,-42
30.867118,-512,511,-62
30.868911,-512,511,-90
30.870705,-512,511,-128
30.872495,-512,511,-182
30.874290,-512,511,-202
30.876083,-512,511,-224
30.877874,-500,511,-236
30.879667,-454,511,-198
30.881459,-438,511,-190
30.883252,-406,511,-164
30.885107,-368,511,-122
30.886910,-328,502,-88
30.888703,-280,482,-46
30.890495,-252,412,-54
30.892289,-220,366,-56
30.894083,-262,296,-60
30.895878,-288,206,-32
30.897670,-324,112,-76
30.899463,-338,48,-148
30.901256,-336,-72,-200
30.903047,-292,-192,-268
30.904893,-196,-308,-392
30.906689,-78,-426,-442
30.908481,4,-512,-454
30.910276,64,-512,-448
30.912068,140,-512,-392
30.913864,222,-512,-382
30.915663,328,-512,-372
30.917463,436,-512,-330
30.919256,511,-512,-270
30.921049,511,-512,-226
30.922843,511,-512,-152
30.924638,511,-512,-102
30.926433,511,-512,-168
30.928234,511,-512,-138
30.930028,511,-512,-42
30.931821,511,-512,-10
30.933617,456,-512,-26
30.935409,382,-468,-128
30.937203,284,162,-358
30.938996,-148,384,-500
30.940786,-408,0,74
30.942576,30,-444,511
30.944369,248,-512,511
30.946161,128,-512,396
30.947951,-8,-512,-232
30.949744,-146,-508,-512
30.951538,-190,-404,-512
30.953332,-508,-160,-484
30.955186,-512,56,-388
30.956978,-512,288,-154
30.958767,-512,468,112
30.960558,-512,511,358
30.962348,-512,511,511
30.964142,-512,511,511
30.965934,-512,511,511
30.967722,-512,511,511
30.969512,-512,511,511
30.971303,-512,511,511
30.973092,-482,511,511
30.974938,-374,511,511
30.976732,-258,511,511
30.978524,-142,511,511
30.980314,-54,511,511
30.982106,14,511,511
30.983899,44,511,511
30.985691,-58,511,511
30.987482,-300,470,510
30.989275,-458,446,446
30.991068,-502,468,464
30.992859,-512,508,511
30.994653,-512,511,511
30.996438,-512,511,511
30.998222,-512,511,511
31.000009,-512,511,486
31.001794,-512,511,344
31.003588,-512,511,212
31.005389,-512,511,80
31.007180,-512,511,-54
31.008973,-498,511,-154
31.010763,-466,511,-266
31.012553,-478,511,-356
31.014379,-512,511,-414
31.016176,-492,480,-430
31.018005,-450,494,-428
31.019798,-450,450,-440
31.021588,-464,424,-388
31.023429,-478,374,-384
31.025227,-512,320,-352
31.027019,-512,296,-350
31.028811,-512,248,-356
31.030602,-512,210,-380
31.032395,-512,124,-448
31.034189,-512,36,-446
31.035981,-512,-2,-472
31.037776,-468,-72,-454
31.039567,-362,-212,-450
31.041360,-238,-290,-464
31.043153,-30,-454,-460
31.045002,172,-512,-448
31.046798,370,-512,-446
31.048590,486,-512,-470
31.050380,511,-512,-440
31.052173,511,-512,-384
31.053968,511,-512,-320
31.055760,511,-512,-170
31.057551,511,-512,64
31.059343,511,-512,214
31.061136,511,-512,304
31.062930,511,-512,258
31.064724,511,-512,192
31.066516,511,-512,64
31.068307,511,-512,-84
31.070098,511,-512,-150
31.071890,511,-512,-216
31.073684,511,260,-470
31.075477,-82,264,-320
31.077266,-356,-92,462
31.079078,32,-512,511
31.080879,304,-512,511
31.082672,416,-512,-112
31.084466,290,-512,-512
31.086268,480,-512,-512
31.088069,248,-512,-178
31.089858,-128,-302,-16
31.091644,-368,-78,16
31.093482,-512,138,-6
31.095286,-512,256,108
31.097079,-464,346,118
31.098871,-426,358,12
31.100663,-488,362,-36
31.102456,-512,366,-76
31.104251,-512,380,-136
31.106044,-512,386,-222
31.107855,-512,396,-296
31.109648,-512,398,-322
31.111439,-512,386,-340
31.113233,-512,382,-328
31.115119,-512,354,-274
31.116920,-512,324,-190
31.118717,-512,296,-128
31.120509,-512,232,-92
31.122302,-512,176,-88
31.124096,-512,154,-64
31.125887,-512,102,-132
31.127677,-512,134,-294
31.129468,-498,-16,-436
31.131259,-450,-60,-468
31.133049,-450,-42,-512
31.134894,-400,14,-512
31.136690,-338,24,-512
31.138484,-264,-36,-512
31.140275,-154,-84,-398
31.142067,-76,-130,-336
31.143861,32,-164,-240
31.147163,176,-284,-62
31.149010,248,-326,8
31.150814,294,-370,88
31.152607,332,-402,156
31.154404,350,-444,244
31.156194,368,-466,282
31.157985,374,-476,328
31.159777,378,-484,352
31.161569,364,-476,352
31.163424,328,-454,334
31.165219,310,-430,320
31.167012,278,-398,278
31.168804,230,-362,236
31.170597,511,511,511
31.172394,344,511,511
31.174188,-154,408,511
31.175981,-308,148,511
31.177772,-210,-154,511
31.179566,-364,-302,256
31.181358,-298,-268,88
31.183152,-162,-204,102
31.185001,-188,-42,204
31.186796,-282,190,338
31.188586,-188,294,504
31.190376,-400,448,511
31.192167,-512,511,511
31.193962,-512,511,511
31.195754,-512,511,511
31.197546,-512,511,511
31.199338,-512,511,511
31.201128,-510,511,511
31.202920,-280,511,511
31.204715,-118,460,511
31.206508,-62,272,511
31.208300,-18,152,406
31.210097,-10,92,280
31.211886,20,150,124
31.213678,8,220,110
31.215514,0,234,118
31.217304,-14,262,144
31.219100,-24,274,136
31.220892,-22,296,82
31.222685,20,286,14
31.224479,66,240,-8
31.226273,150,206,-28
31.228064,160,216,10
31.229856,124,244,40
31.231647,56,240,152
31.233447,8,252,226
31.235240,-96,256,292
31.237036,511,92,511
31.238828,511,-64,511
31.240621,210,-36,511
31.242414,-8,-16,511
31.244209,-98,130,490
31.246001,-362,194,116
31.247794,-512,86,-202
31.249585,-480,96,-368
31.251378,-512,90,-440
31.253170,-512,18,-428
31.255019,-234,-94,-318
31.256816,86,144,-318
31.258606,2,134,-334
31.260397,4,192,-436
31.262187,-84,192,-400
31.263983,-100,218,-512
31.265776,-126,230,-380
31.267577,-228,196,-450
31.269371,-304,108,-350
31.271163,-340,194,-252
31.272953,-430,270,88
31.274747,-510,276,256
31.276539,-512,292,438
31.278331,-488,246,511
31.280123,-404,156,511
31.281913,-300,62,511
31.283708,-208,-16,511
31.285500,-150,-94,511
31.287291,-130,-136,511
31.289083,-112,-130,511
31.290875,-128,-122,420
31.292666,-172,-84,264
31.294461,-200,-52,130
31.296255,-216,-8,40
31.298048,-236,52,-34
31.299839,-216,96,-64
31.301631,-190,132,-110
31.303478,-174,164,-114
31.305293,-164,180,-92
31.307090,-158,188,-48
31.308882,-138,178,48
31.310672,-128,170,118
31.312465,-110,154,192
31.314259,-116,136,268
31.316085,-128,124,278
31.317883,-142,112,314
31.319684,-168,112,300
31.321477,-176,98,288
31.323270,-182,110,276
31.325118,-206,112,242
31.326908,-202,128,204
31.328699,-214,140,168
31.330490,-206,146,162
31.332281,-188,152,134
31.334074,-162,164,148
31.335860,-132,178,144
31.337645,-116,172,148
31.339432,-98,192,192
31.341218,-66,188,166
31.343002,-68,190,208
31.344797,-76,198,218
31.346601,-86,192,230
31.348394,-76,188,236
31.350187,-92,188,230
31.351981,-102,174,234
31.353776,-120,174,218
31.355571,-116,176,220
31.357369,-130,176,218
31.359161,-132,180,190
31.360954,-128,176,180
31.362745,-134,180,174
31.364540,-116,178,170
31.366332,-128,170,180
31.368124,-124,156,182
31.369915,-132,160,184
31.371706,-132,160,188
31.373500,-142,160,194
31.375293,-134,152,192
31.377083,-144,156,178
31.378876,-152,144,188
31.380669,-150,146,192
31.382460,-150,148,184
31.384252,-154,146,184
31.386045,-150,142,194
31.387835,-156,134,164
31.389625,-154,140,160
31.391415,-154,140,172
31.393207,-146,134,166
31.395059,-154,134,162
31.396853,-156,132,162
31.398645,-156,128,186
31.400434,-160,132,176
31.402225,-152,136,182
31.404019,-150,132,172
31.405812,-148,130,184
31.407605,-156,138,184
31.409397,-152,134,178
31.411187,-148,136,172
31.412976,-146,140,196
31.414769,-148,134,174
31.416596,-152,140,174
31.418392,-160,142,182
31.420186,-152,146,184
31.421979,-154,136,178
31.423771,-144,150,174
31.425563,-150,150,186
31.427354,-146,142,184
31.429144,-148,150,184
31.430936,-144,144,186
31.432726,-144,156,184
31.434521,-146,148,196
31.436312,-148,152,184
31.438104,-154,158,192
31.439896,-146,152,184
31.441688,-144,156,194
31.443481,-144,154,184
31.445273,-142,152,182
31.447064,-148,160,178
31.448858,-142,158,178
31.450650,-144,150,186
31.452440,-136,156,188
31.454233,-144,160,190
31.456022,-138,156,188
31.457813,-146,162,184
31.459603,-144,150,190
31.461396,-144,146,172
31.463189,-144,144,184
31.465040,-138,150,182
31.466834,-138,150,194
31.468626,-146,148,188
31.470418,-144,150,184
31.472208,-150,144,184
31.474003,-146,146,192
31.475798,-146,164,168
31.477584,-144,148,196
31.479367,-150,146,182
31.481153,-150,146,180
31.482938,-146,146,182
31.484738,-146,142,180
31.486547,-152,146,180
31.488343,-144,146,182
31.490134,-152,144,178
31.491927,-144,152,184
31.493721,-140,148,192
31.495514,-144,156,174
31.497306,-146,148,176
31.499099,-148,150,180
31.500891,-152,150,182
31.502684,-148,142,186
31.504477,-142,148,180
31.506269,-148,142,192
31.508061,-144,148,192
31.509852,-144,152,186
31.511644,-142,158,184
31.513438,-144,148,180
31.515236,-148,156,200
31.517063,-138,172,172
31.518857,-144,154,180
31.520650,-144,148,188
31.522441,-146,158,188
31.524237,-146,148,188
31.526028,-140,158,206
31.527820,-152,152,184
31.529613,-142,154,182
31.531409,-144,148,178
31.533201,-144,148,172
31.535050,-142,148,190
31.536848,-146,148,176
31.538640,-154,150,188
31.540433,-150,154,204
31.542225,-148,148,186
31.544019,-138,146,186
31.545810,-148,150,178
31.547603,-130,146,178
31.549396,-148,144,176
31.551187,-142,146,182
31.552977,-146,150,182
31.554770,-152,148,184
31.556565,-146,144,182
31.558359,-134,144,186
31.560151,-148,150,176
31.561939,-150,148,182
31.563741,-146,152,180
31.565560,-148,150,178
31.567358,-140,164,176
31.569151,-146,150,184
31.570942,-150,152,182
31.572733,-148,158,194
31.574527,-148,152,182
31.576318,-150,160,194
31.578110,-148,148,178
31.579902,-136,150,164
31.581691,-138,148,186
31.583485,-154,150,184
31.585272,-144,150,186
31.587057,-146,152,210
31.588843,-140,146,192
31.590631,-148,148,178
31.592416,-152,152,180
31.594211,-140,152,182
31.596006,-142,146,190
31.597800,-144,152,182
31.599593,-140,146,182
31.601384,-148,158,180
31.603175,-140,146,182
31.605026,-148,140,180
31.606829,-146,152,174
31.608622,-142,152,192
31.610412,-142,144,188
31.612202,-144,150,182
31.613997,-144,152,182
31.615789,-142,148,178
31.617620,-148,150,192
31.619415,-154,150,184
31.621243,-144,148,210
31.623040,-136,150,176
31.624886,-148,142,174
31.626681,-144,146,184
31.628473,-144,154,186
31.630264,-146,150,180
31.632053,-132,144,184
31.633846,-152,156,182
31.635632,-156,150,182
31.637419,-144,144,188
31.639206,-140,146,164
31.640994,-142,148,192
31.642779,-142,152,200
31.644574,-144,146,188
31.646373,-146,150,192
31.648163,-148,142,182
31.649954,-148,150,188
31.651744,-148,152,182
31.653539,-142,154,182
31.655331,-146,152,186
31.657126,-142,152,178
31.658918,-144,146,192
31.660712,-138,148,176
31.662506,-154,148,188
31.664298,-136,142,176
31.666090,-148,144,182
31.667882,-152,154,182
31.669672,-144,146,184
31.671463,-150,152,184
31.673256,-148,164,188
31.675105,-144,146,192
31.676899,-148,150,184
31.678691,-146,146,192
31.680484,-136,144,180
31.682277,-144,148,178
31.684072,-144,138,188
31.685864,-146,150,190
31.687657,-148,144,180
31.689449,-150,150,192
31.691240,-146,152,190
31.693032,-144,146,172
31.694871,-146,150,178
31.696666,-148,152,200
31.698460,-152,164,186
31.700252,-148,152,214
31.702043,-148,150,172
31.703836,-146,148,184
31.705628,-148,150,186
31.707420,-146,152,192
31.709222,-142,142,184
31.711034,-148,152,188
31.712827,-138,158,178
31.714623,-144,148,184
31.716415,-144,152,178
31.718244,-148,152,202
31.720037,-154,146,194
31.721829,-142,150,190
31.723626,-150,156,182
31.725418,-144,148,186
31.727209,-144,148,188
31.729000,-140,152,190
31.730791,-144,148,186
31.732585,-136,144,176
31.734397,-142,146,188
31.736190,-146,152,178
31.737982,-142,152,190
31.739772,-138,142,186
31.741562,-132,150,180
31.743405,-148,146,180
31.745204,-146,142,186
31.746995,-150,168,180
31.748786,-152,144,180
31.750577,-144,140,174
31.752368,-148,150,184
31.754163,-148,152,180
31.755955,-144,160,182
31.757748,-148,140,178
31.759539,-142,162,184
31.761328,-142,152,190
31.763118,-140,148,182
31.764960,-148,146,188
31.766751,-142,162,172
31.768543,-144,154,206
31.770336,-140,148,168
31.772131,-148,146,180
31.773926,-128,146,186
31.775717,-144,146,182
31.777507,-146,148,190
31.779299,-146,150,208
31.781107,-146,150,184
31.782898,-148,148,186
31.784690,-140,150,192
31.786482,-140,140,186
31.788273,-144,156,192
31.790066,-146,148,186
31.791856,-136,146,180
31.793648,-144,144,180
31.795440,-154,148,186
31.797232,-140,150,198
31.799023,-142,144,192
31.800828,-144,148,184
31.802623,-150,148,182
31.804417,-138,144,190
31.806209,-142,146,186
31.808002,-138,148,182
31.809793,-140,152,176
31.811585,-152,150,184
31.813431,-132,146,180
31.815232,-152,152,178
31.817024,-144,150,176
31.818852,-148,150,188
31.820648,-144,146,192
31.822443,-144,146,188
31.824240,-144,160,184
31.826031,-156,152,180
31.827822,-140,144,176
31.829614,-144,152,184
31.831404,-142,148,188
31.833195,-138,148,188
31.835035,-146,150,180
31.836823,-150,152,184
31.838608,-144,142,182
31.841902,-152,154,192
31.843743,-150,150,200
31.845561,-142,148,188
31.847362,-144,158,172
31.849155,-144,142,174
31.850945,-144,150,168
31.852735,-142,154,182
31.854526,-140,148,182
31.856317,-144,150,172
31.858107,-154,150,188
31.859896,-142,140,180
31.861687,-146,150,186
31.863480,-146,148,184
31.865271,-144,154,180
31.867060,-148,144,186
31.868851,-146,142,182
31.870643,-140,140,184
31.872435,-144,148,186
31.874225,-134,148,180
31.876015,-146,150,182
31.877807,-146,146,192
31.879601,-152,152,180
31.881393,-146,146,182
31.883185,-140,148,192
31.885041,-132,142,178
31.886837,-144,148,186
31.888628,-138,150,164
31.890420,-144,150,180
31.892212,-142,144,178
31.894006,-148,150,186
31.895799,-142,146,188
31.897591,-144,152,186
31.899384,-136,146,174
31.901176,-144,148,184
31.902968,-142,144,190
31.904759,-144,146,182
31.906552,-144,150,184
31.908343,-146,156,176
31.910138,-150,150,180
31.911930,-144,148,180
31.913725,-146,150,182
31.915515,-146,150,170
31.917310,-150,152,176
31.919145,-136,150,182
31.920940,-152,140,186
31.922736,-146,154,218
31.924534,-142,152,158
31.926327,-152,146,178
31.928119,-146,160,180
31.929909,-142,144,178
31.931704,-142,150,192
31.933512,-144,154,176
31.935308,-152,156,190
31.937102,-144,148,188
31.938894,-144,164,174
31.940685,-144,146,208
31.942476,-146,150,166
31.944267,-148,150,184
31.946059,-154,152,186
31.947850,-144,154,178
31.949641,-140,150,202
31.951433,-144,142,176
31.953224,-148,150,188
31.955077,-144,152,184
31.956874,-144,152,194
31.958667,-144,152,180
31.960463,-146,152,186
31.962255,-142,150,178
31.964052,-158,154,184
31.965844,-142,152,200
31.967635,-146,150,186
31.969426,-136,146,188
31.971217,-144,158,184
31.973009,-150,146,186
31.974815,-144,144,182
31.976615,-146,148,180
31.978408,-144,148,180
31.980200,-144,148,178
31.981990,-132,148,184
31.983785,-156,150,182
31.985577,-144,150,180
31.987369,-144,150,188
31.989162,-144,154,176
31.990954,-144,148,194
31.992744,-132,144,176
31.994541,-142,150,186
31.996333,-150,156,178
31.998128,-148,148,190
31.999921,-136,150,182
32.001714,-146,150,182
32.003508,-148,152,192
32.005300,-148,150,178
32.007090,-140,152,182
32.008882,-146,154,182
32.010673,-160,156,186
32.012464,-144,146,178
32.014259,-144,142,186
32.016053,-144,148,188
32.017847,-150,150,178
32.019676,-140,152,176
32.021471,-142,152,178
32.023267,-146,146,176
32.025121,-154,152,184
32.026915,-146,156,188
32.028708,-148,148,170
32.030499,-144,150,192
32.032293,-148,146,184
32.034089,-142,152,194
32.035881,-146,148,192
32.037671,-148,156,206
32.039465,-146,144,184
32.041258,-140,152,180
32.043050,-148,148,184
32.044934,-146,152,180
32.046737,-148,152,184
32.048530,-146,150,180
32.050322,-150,150,174
32.052114,-140,150,168
32.053911,-146,152,184
32.055703,-144,160,190
32.057494,-144,148,182
32.059286,-144,140,186
32.061077,-150,154,190
32.062866,-150,148,182
32.064662,-144,158,180
32.066453,-148,152,180
32.068245,-144,168,182
32.070035,-148,146,192
32.071826,-140,142,174
32.073619,-142,150,180
32.075411,-144,148,182
32.077204,-148,166,168
32.078995,-146,150,178
32.080785,-142,146,188
32.082576,-152,152,182
32.084370,-146,154,182
32.086158,-144,156,182
32.087943,-152,152,192
32.089730,-148,150,188
32.091516,-142,146,194
32.093303,-140,156,180
32.095157,-130,150,174
32.096952,-144,146,186
32.098745,-146,150,186
32.100539,-148,146,186
32.102333,-142,148,186
32.104130,-150,146,182
32.105922,-154,152,184
32.107713,-148,152,180
32.109505,-144,146,188
32.111298,-138,146,184
32.113090,-148,156,186
32.114937,-142,152,194
32.116732,-144,148,188
32.118526,-146,150,190
32.120353,-142,154,186
32.122149,-148,146,178
32.123945,-136,152,178
32.125736,-144,148,186
32.127529,-126,146,176
32.129320,-152,154,182
32.131111,-142,148,180
32.132903,-148,148,176
32.134696,-144,152,176
32.136488,-144,162,168
32.138279,-148,146,176
32.140071,-138,134,176
32.141861,-142,150,192
32.143657,-148,148,186
32.145451,-142,150,182
32.147244,-142,152,168
32.149036,-144,156,192
32.150829,-142,144,190
32.152619,-142,150,184
32.154415,-154,148,180
32.156211,-152,152,182
32.158006,-144,166,178
32.159797,-150,144,182
32.161590,-148,158,178
32.163431,-142,146,190
32.165230,-154,156,186
32.167023,-150,152,158
32.168817,-148,150,192
32.170609,-142,150,190
32.172402,-154,152,190
32.174198,-148,154,198
32.175990,-142,152,178
32.177782,-152,158,184
32.179574,-152,150,186
32.181365,-132,150,176
32.183157,-150,152,178
32.185002,-146,146,188
32.186795,-132,148,180
32.188588,-148,150,182
32.190381,-144,146,180
32.192173,-144,154,180
32.193966,-138,148,188
32.195759,-144,156,196
32.197553,-144,160,188
32.199349,-146,146,188
32.201139,-150,162,184
32.202932,-148,152,180
32.204728,-146,148,172
32.206521,-144,150,176
32.208312,-134,148,172
32.210103,-144,154,190
32.211898,-140,146,176
32.213695,-144,150,192
32.215487,-146,154,178
32.217276,-148,152,176
32.219067,-132,146,178
32.220897,-140,148,176
32.222693,-148,154,190
32.224489,-142,152,184
32.226282,-152,152,180
32.228074,-146,148,184
32.229866,-142,148,182
32.231658,-146,150,180
32.233452,-146,150,188
32.235242,-130,150,184
32.237033,-150,152,192
32.238824,-136,150,180
32.240617,-144,146,182
32.242408,-142,148,180
32.244201,-146,160,184
32.245993,-152,152,180
32.247784,-140,152,178
32.249575,-146,150,176
32.251367,-142,150,180
32.253187,-142,148,188
32.255044,-140,150,190
32.256842,-144,150,190
32.258634,-156,146,190
32.260425,-148,158,176
32.262218,-142,150,178
32.264012,-144,146,184
32.265805,-144,152,188
32.267598,-130,146,178
32.269390,-148,148,180
32.271192,-146,152,218
32.272986,-144,148,184
32.274778,-140,146,188
32.276572,-152,150,182
32.278361,-142,146,192
32.280152,-148,150,180
32.281944,-136,148,170
32.283741,-146,146,186
32.285542,-152,152,176
32.287335,-136,150,176
32.289125,-142,146,204
32.290915,-138,142,186
32.292706,-148,152,184
32.294499,-148,150,188
32.296293,-144,152,176
32.298089,-156,146,184
32.299881,-142,144,192
32.301671,-144,146,190
32.303469,-136,150,184
32.305266,-144,152,172
32.307056,-146,150,200
32.308849,-152,150,176
32.310640,-142,152,148
32.312433,-148,150,186
32.314250,-144,150,180
32.316044,-148,144,170
32.317835,-142,148,190
32.319626,-144,148,188
32.321452,-138,146,180
32.323248,-138,148,190
32.325109,-142,150,182
32.326904,-136,152,178
32.328694,-142,148,180
32.330485,-144,144,178
32.332276,-144,156,190
32.334071,-140,152,184
32.335860,-146,146,182
32.337647,-148,148,184
32.339433,-148,150,182
32.341219,-156,156,178
32.343004,-146,148,178
32.344798,-148,148,182
32.346601,-142,160,176
32.348393,-142,150,194
32.350183,-128,144,174
32.351974,-146,154,174
32.353772,-146,152,170
32.355568,-144,150,188
32.357363,-144,160,176
32.359160,-154,154,186
32.360952,-144,152,174
32.362745,-146,152,180
32.364539,-146,144,184
32.366331,-146,146,176
32.368122,-140,154,164
32.369912,-144,150,194
32.371702,-140,140,180
32.373497,-148,154,192
32.375288,-150,150,186
32.377079,-150,156,178
32.378870,-148,154,182
32.380662,-138,152,170
32.382494,-150,150,186
32.384292,-136,150,180
32.386087,-150,144,182
32.387877,-142,152,188
32.389668,-146,152,184
32.391458,-140,148,176
32.393251,-150,152,184
32.395102,-142,154,190
32.396901,-146,152,176
32.398693,-144,146,178
32.400484,-148,152,178
32.402276,-144,148,188
32.404088,-140,152,166
32.405882,-144,144,182
32.407676,-146,152,176
32.409468,-146,146,188
32.411261,-146,166,170
32.413052,-144,152,184
32.414895,-146,152,180
32.416690,-140,158,172
32.418482,-160,156,182
32.420273,-150,160,166
32.422103,-138,150,192
32.423901,-136,150,184
32.425696,-142,144,180
32.427490,-148,158,174
32.429281,-150,148,184
32.431071,-130,146,176
32.432863,-150,150,182
32.434655,-148,148,176
32.436447,-144,148,178
32.438240,-136,144,188
32.440030,-148,158,178
32.441826,-138,146,186
32.443621,-144,152,178
32.445412,-144,150,184
32.447204,-140,148,162
32.448998,-148,150,184
32.450789,-142,146,172
32.452581,-140,154,184
32.454377,-144,160,168
32.456169,-146,150,174
32.457963,-146,164,174
32.459755,-142,144,184
32.461546,-144,144,186
32.463337,-146,148,184
32.465187,-144,146,186
32.466979,-134,150,176
32.468771,-136,144,184
32.470563,-144,142,180
32.472354,-142,148,188
32.474147,-146,150,188
32.475938,-142,150,180
32.477729,-144,150,178
32.479521,-152,146,168
32.481311,-140,152,190
32.483101,-148,154,184
32.484945,-146,148,182
32.486740,-140,152,182
32.488533,-140,150,184
32.490326,-144,150,196
32.492119,-144,148,190
32.493935,-146,160,178
32.495726,-150,144,176
32.497519,-142,152,166
32.499311,-146,152,178
32.501101,-148,152,172
32.502892,-142,150,192
32.504687,-134,142,182
32.506480,-142,148,200
32.508272,-146,146,192
32.510064,-146,154,180
32.511870,-142,152,190
32.513664,-134,150,180
32.515451,-142,150,202
32.517237,-148,146,180
32.519024,-150,150,188
32.520810,-150,154,182
32.522631,-144,154,174
32.524432,-146,142,178
32.526246,-144,154,166
32.528041,-144,150,182
32.529834,-130,148,182
32.531624,-148,150,190
32.533464,-144,146,182
32.536776,-142,148,180
32.538617,-140,150,174
32.540417,-142,148,178
32.542209,-154,150,184
32.544006,-140,150,188
32.545795,-146,150,176
32.547586,-140,158,172
32.549375,-148,156,182
32.551165,-156,152,186
32.552956,-140,148,172
32.554750,-144,152,192
32.556541,-142,154,180
32.558331,-146,150,186
32.560121,-152,148,180
32.561912,-128,144,174
32.563712,-142,150,184
32.565515,-140,144,182
32.567308,-142,148,180
32.569098,-146,150,184
32.570888,-128,146,178
32.572676,-148,156,178
32.574468,-144,148,174
32.576259,-142,154,180
32.578049,-146,146,186
32.579839,-142,148,182
32.581628,-142,158,178
32.583471,-144,152,204
32.585262,-148,154,180
32.587049,-132,144,176
32.588834,-146,142,182
32.590619,-144,160,172
32.592406,-142,150,174
32.594200,-144,156,204
32.595998,-142,152,192
32.597789,-148,152,180
32.599580,-138,160,176
32.601369,-142,148,178
32.603160,-144,152,184
32.605015,-154,150,184
32.606834,-140,148,186
32.608629,-148,146,174
32.610418,-140,152,184
32.612207,-146,160,176
32.614001,-152,158,184
32.615793,-142,160,186
32.617584,-144,150,188
32.619376,-146,158,182
32.621168,-142,150,188
32.623005,-136,152,178
32.624801,-146,156,218
32.626599,-142,146,192
32.628392,-142,150,180
32.630184,-144,150,192
32.631977,-144,144,184
32.633771,-144,152,172
32.635561,-140,148,184
32.637351,-142,150,176
32.639144,-148,150,188
32.640933,-134,148,186
32.642724,-144,162,174
32.644518,-144,144,180
32.646311,-148,152,188
32.648101,-142,152,184
32.649892,-132,146,186
32.651684,-146,154,192
32.653479,-158,158,184
32.655268,-144,148,160
32.657061,-148,152,180
32.658851,-144,146,176
32.660646,-146,152,182
32.662437,-146,164,170
32.664231,-142,154,204
32.666022,-146,150,182
32.667812,-146,150,184
32.669604,-150,154,180
32.671394,-138,156,172
32.673187,-146,150,186
32.675038,-146,150,176
32.676830,-144,156,182
32.678622,-154,148,180
32.680414,-146,156,198
32.682205,-146,154,182
32.684000,-138,154,178
32.685792,-148,150,178
32.687584,-128,144,174
32.689377,-150,152,180
32.691167,-144,152,184